0.155712691032015,-0.57951520694486,-0.492785355811121,-0.134275129722291,-0.14208800024562,0.596775758397498,-0.031089462361334,-0.110027847170276,-0.351982308797463,0.263728638391199,-0.153159643198137,0.39709618437235,0.44191091162225,-0.233843961354063,-0.188342306393603,0.45736628449903,-0.444482713600387,0.256751635666649,0.354434640812077,-0.0129598647128843,0.250091902402549,0.103217554197173,0.107451354926241,-0.38708788456805,-0.420242681923909,-0.215544437673156,-0.187322316856306,0.0107329099313302,-0.136355104813891,-0.373228514883459,0.114509717480931,-0.379985734861373,0.343664469389151,-0.00282333848063642,0.255352049867464,0.237693876069069,-0.386090789735391,-0.358466039391044,-0.274243373700566,-0.0971971685788729,0.387633538255872,0.108670542927278,0.0358003395297991,-0.116220359886722,0.0353740891533353,0.0243244871811314,-0.189179129695656,-0.390260110412999,-0.392437771791052,-0.159789212950229,0.045763205678359,-0.227266925416311,-0.125252258107368,0.46386566103315,0.0435305101105837,-0.174772992762327,-0.305448439342727,0.255886379876448,0.449589629594629,0.134540274771451,-0.181654106628046,-0.159497079001808,-0.023136737454003,0.170277987982133,0.00370704028795548,-0.217640147571383,0.0690275578521696,-0.0183401037163062,-0.172982834693499,-0.011701342238357,0.504438147772789,-0.338074136355958,-0.0911474239724977,-0.0520097865015114,-0.0106078833327663,-0.0647388264817751,-0.241455482508178,-0.0795509289999069,-0.000294588077601712,0.012200602363537,0.0492044570260803,0.451666168085629,
